digraph Tree {
node [shape=box] ;
0 [label="X[0] <= 0.5\ngini = 0.459\nsamples = 14\nvalue = [5, 9]"] ;
1 [label="gini = 0.0\nsamples = 5\nvalue = [5, 0]"] ;
0 -> 1 [labeldistance=2.5, labelangle=45, headlabel="True"] ;
2 [label="gini = 0.0\nsamples = 9\nvalue = [0, 9]"] ;
0 -> 2 [labeldistance=2.5, labelangle=-45, headlabel="False"] ;
}